net
{
	propagationenginegenerator1791944048146838126L = "edu.ucla.belief.approx.BeliefPropagationSettings@6258e3b8";
	recoveryenginegenerator6944530267470113528l = "edu.ucla.util.SettingsImpl@5ec4d5d3";
	node_size = (130.0 55.0);
	huginenginegenerator3061656038650325130L = "edu.ucla.belief.inference.JoinTreeSettings@22cc38fa";
}

node FutureIncome
{
	states = ("Promising" "Not_promising" );
	position = (50 -269);
	DSLxEXTRA_DEFINITIONxMANDATORY = "false";
	diagnosistype = "AUXILIARY";
	label = "Future Income";
	DSLxPOSITIONxWIDTH = "90";
	DSLxEXTRA_DEFINITIONxDIAGNOSIS_TYPE = "AUXILIARY";
	excludepolicy = "include whole CPT";
	DSLxTYPE = "CPT";
	DSLxPOSITIONxHEIGHT = "30";
	DSLxEXTRA_DEFINITIONxRANKED = "false";
	ismapvariable = "false";
	ID = "FutureIncome";
}
node Age
{
	states = ("Between16and21" "Between22and64" "Over65" );
	position = (423 -13);
	DSLxEXTRA_DEFINITIONxMANDATORY = "false";
	diagnosistype = "AUXILIARY";
	label = "Age";
	DSLxPOSITIONxWIDTH = "70";
	DSLxEXTRA_DEFINITIONxDIAGNOSIS_TYPE = "AUXILIARY";
	excludepolicy = "include whole CPT";
	DSLxTYPE = "CPT";
	DSLxPOSITIONxHEIGHT = "30";
	DSLxEXTRA_DEFINITIONxRANKED = "false";
	ismapvariable = "false";
	ID = "Age";
}
node Income
{
	states = ("High" "Medium" "Low" );
	position = (53 -13);
	DSLxEXTRA_DEFINITIONxMANDATORY = "false";
	diagnosistype = "AUXILIARY";
	label = "Income";
	DSLxPOSITIONxWIDTH = "83";
	DSLxEXTRA_DEFINITIONxDIAGNOSIS_TYPE = "AUXILIARY";
	excludepolicy = "include whole CPT";
	DSLxTYPE = "CPT";
	DSLxPOSITIONxHEIGHT = "30";
	DSLxEXTRA_DEFINITIONxRANKED = "false";
	ismapvariable = "false";
	ID = "Profession";
}
node CreditWorthiness
{
	states = ("Positive" "Negative" );
	position = (240 -394);
	DSLxEXTRA_DEFINITIONxMANDATORY = "false";
	diagnosistype = "AUXILIARY";
	label = "Credit Worthiness";
	DSLxPOSITIONxWIDTH = "100";
	DSLxEXTRA_DEFINITIONxDIAGNOSIS_TYPE = "AUXILIARY";
	excludepolicy = "include whole CPT";
	DSLxTYPE = "CPT";
	DSLxPOSITIONxHEIGHT = "30";
	DSLxEXTRA_DEFINITIONxRANKED = "false";
	ismapvariable = "false";
	ID = "CreditWorthiness";
}
node PaymentHistory
{
	states = ("Excellent" "Acceptable" "Unacceptable" );
	position = (314 -145);
	DSLxEXTRA_DEFINITIONxMANDATORY = "false";
	diagnosistype = "AUXILIARY";
	label = "Payment History";
	DSLxPOSITIONxWIDTH = "93";
	DSLxEXTRA_DEFINITIONxDIAGNOSIS_TYPE = "AUXILIARY";
	excludepolicy = "include whole CPT";
	DSLxTYPE = "CPT";
	DSLxPOSITIONxHEIGHT = "30";
	DSLxEXTRA_DEFINITIONxRANKED = "false";
	ismapvariable = "false";
	ID = "PaymentHistory";
}
node DebtIncomeRatio
{
	states = ("Low" "High" );
	position = (235 -20);
	DSLxEXTRA_DEFINITIONxMANDATORY = "false";
	diagnosistype = "AUXILIARY";
	label = "Ratio of Debts To Income";
	DSLxPOSITIONxWIDTH = "81";
	DSLxEXTRA_DEFINITIONxDIAGNOSIS_TYPE = "AUXILIARY";
	excludepolicy = "include whole CPT";
	DSLxTYPE = "CPT";
	DSLxPOSITIONxHEIGHT = "30";
	DSLxEXTRA_DEFINITIONxRANKED = "false";
	ismapvariable = "false";
	ID = "RatioDebInc";
}
node Assets
{
	states = ("High" "Medium" "Low" );
	position = (154 -139);
	DSLxEXTRA_DEFINITIONxMANDATORY = "false";
	diagnosistype = "AUXILIARY";
	label = "Assets";
	DSLxPOSITIONxWIDTH = "70";
	DSLxEXTRA_DEFINITIONxDIAGNOSIS_TYPE = "AUXILIARY";
	excludepolicy = "include whole CPT";
	DSLxTYPE = "CPT";
	DSLxPOSITIONxHEIGHT = "30";
	DSLxEXTRA_DEFINITIONxRANKED = "false";
	ismapvariable = "false";
	ID = "Worth";
}
node Reliability
{
	states = ("Reliable" "Unreliable" );
	position = (417 -277);
	DSLxEXTRA_DEFINITIONxMANDATORY = "false";
	diagnosistype = "AUXILIARY";
	label = "Reliability";
	DSLxPOSITIONxWIDTH = "70";
	DSLxEXTRA_DEFINITIONxDIAGNOSIS_TYPE = "AUXILIARY";
	excludepolicy = "include whole CPT";
	DSLxTYPE = "CPT";
	DSLxPOSITIONxHEIGHT = "30";
	DSLxEXTRA_DEFINITIONxRANKED = "false";
	ismapvariable = "false";
	ID = "Reliability";
}
potential ( FutureIncome | Assets Income )
{
	data = (((	0.9950199203187251	0.0049800796812749	)
		(	0.65	0.35	)
		(	0.4	0.6	))
		((	0.65	0.35	)
		(	0.5	0.5	)
		(	0.35	0.65	))
		((	0.4	0.6	)
		(	0.2	0.8	)
		(	0.0049800796812749	0.9950199203187251	)));
}
potential ( Age | )
{
	data = (	0.3333333333333333	0.3333333333333333	0.3333333333333333	);
}
potential ( Income | )
{
	data = (	0.3333333333333333	0.3333333333333333	0.3333333333333333	);
}
potential ( CreditWorthiness | Reliability FutureIncome DebtIncomeRatio )
{
	data = ((((	0.9950248706715131	0.004975129328486894	)
		(	0.65	0.35	))
		((	0.65	0.35	)
		(	0.35	0.65	)))
		(((	0.65	0.35	)
		(	0.35	0.65	))
		((	0.35	0.65	)
		(	0.004975129328486894	0.9950248706715131	))));
}
potential ( PaymentHistory | Age DebtIncomeRatio )
{
	data = (((	0.4166666666666667	0.3333333333333333	0.25	)
		(	0.08006405124099279	0.12009607686148918	0.799839871897518	))
		((	0.5172413793103449	0.3448275862068966	0.13793103448275862	)
		(	0.13793103448275862	0.3448275862068966	0.5172413793103449	))
		((	0.7999999839999987	0.12000000960000078	0.08000000640000052	)
		(	0.25	0.3333333333333333	0.4166666666666667	)));
}
potential ( DebtIncomeRatio | )
{
	data = (	0.5	0.5	);
}
potential ( Assets | Income )
{
	data = ((	0.9510086455331412	0.04803073967339097	9.606147934678195E-4	)
		(	0.2	0.6	0.2	)
		(	9.606147934678195E-4	0.04803073967339097	0.9510086455331412	));
}
potential ( Reliability | PaymentHistory Age )
{
	data = (((	0.8	0.2	)
		(	0.9	0.1	)
		(	0.99	0.01	))
		((	0.5	0.5	)
		(	0.6	0.4	)
		(	0.5	0.5	))
		((	0.1	0.9	)
		(	0.2	0.8	)
		(	0.3	0.7	)));
}
